digraph Tree {
node [shape=box] ;
0 [label="TotalWorkingYears <= 1.5\ngini = 0.27\nsamples = 4382\nvalue = [3677, 705]"] ;
1 [label="MaritalStatus <= 1.5\ngini = 0.5\nsamples = 273\nvalue = [140, 133]"] ;
0 -> 1 [labeldistance=2.5, labelangle=45, headlabel="True"] ;
2 [label="Age <= 29.5\ngini = 0.438\nsamples = 136\nvalue = [92, 44]"] ;
1 -> 2 ;
3 [label="JobLevel <= 3.5\ngini = 0.496\nsamples = 83\nvalue = [45, 38]"] ;
2 -> 3 ;
4 [label="MonthlyIncome <= 43980.0\ngini = 0.464\nsamples = 71\nvalue = [45, 26]"] ;
3 -> 4 ;
5 [label="DistanceFromHome <= 5.0\ngini = 0.49\nsamples = 35\nvalue = [15, 20]"] ;
4 -> 5 ;
6 [label="PercentSalaryHike <= 14.0\ngini = 0.415\nsamples = 17\nvalue = [12, 5]"] ;
5 -> 6 ;
7 [label="gini = 0.0\nsamples = 9\nvalue = [9, 0]"] ;
6 -> 7 ;
8 [label="PercentSalaryHike <= 20.5\ngini = 0.469\nsamples = 8\nvalue = [3, 5]"] ;
6 -> 8 ;
9 [label="gini = 0.0\nsamples = 5\nvalue = [0, 5]"] ;
8 -> 9 ;
10 [label="gini = 0.0\nsamples = 3\nvalue = [3, 0]"] ;
8 -> 10 ;
11 [label="MonthlyIncome <= 16195.0\ngini = 0.278\nsamples = 18\nvalue = [3, 15]"] ;
5 -> 11 ;
12 [label="gini = 0.0\nsamples = 3\nvalue = [3, 0]"] ;
11 -> 12 ;
13 [label="gini = 0.0\nsamples = 15\nvalue = [0, 15]"] ;
11 -> 13 ;
14 [label="PercentSalaryHike <= 12.0\ngini = 0.278\nsamples = 36\nvalue = [30, 6]"] ;
4 -> 14 ;
15 [label="gini = 0.0\nsamples = 3\nvalue = [0, 3]"] ;
14 -> 15 ;
16 [label="MonthlyIncome <= 74735.0\ngini = 0.165\nsamples = 33\nvalue = [30, 3]"] ;
14 -> 16 ;
17 [label="gini = 0.0\nsamples = 18\nvalue = [18, 0]"] ;
16 -> 17 ;
18 [label="MonthlyIncome <= 81420.0\ngini = 0.32\nsamples = 15\nvalue = [12, 3]"] ;
16 -> 18 ;
19 [label="gini = 0.0\nsamples = 3\nvalue = [0, 3]"] ;
18 -> 19 ;
20 [label="gini = 0.0\nsamples = 12\nvalue = [12, 0]"] ;
18 -> 20 ;
21 [label="gini = 0.0\nsamples = 12\nvalue = [0, 12]"] ;
3 -> 21 ;
22 [label="MonthlyIncome <= 25425.0\ngini = 0.201\nsamples = 53\nvalue = [47, 6]"] ;
2 -> 22 ;
23 [label="PercentSalaryHike <= 15.0\ngini = 0.5\nsamples = 6\nvalue = [3, 3]"] ;
22 -> 23 ;
24 [label="gini = 0.0\nsamples = 3\nvalue = [0, 3]"] ;
23 -> 24 ;
25 [label="gini = 0.0\nsamples = 3\nvalue = [3, 0]"] ;
23 -> 25 ;
26 [label="Age <= 30.5\ngini = 0.12\nsamples = 47\nvalue = [44, 3]"] ;
22 -> 26 ;
27 [label="MaritalStatus <= 0.5\ngini = 0.397\nsamples = 11\nvalue = [8, 3]"] ;
26 -> 27 ;
28 [label="gini = 0.0\nsamples = 6\nvalue = [6, 0]"] ;
27 -> 28 ;
29 [label="TrainingTimesLastYear <= 2.5\ngini = 0.48\nsamples = 5\nvalue = [2, 3]"] ;
27 -> 29 ;
30 [label="gini = 0.0\nsamples = 3\nvalue = [0, 3]"] ;
29 -> 30 ;
31 [label="gini = 0.0\nsamples = 2\nvalue = [2, 0]"] ;
29 -> 31 ;
32 [label="gini = 0.0\nsamples = 36\nvalue = [36, 0]"] ;
26 -> 32 ;
33 [label="MonthlyIncome <= 23140.0\ngini = 0.455\nsamples = 137\nvalue = [48, 89]"] ;
1 -> 33 ;
34 [label="gini = 0.0\nsamples = 12\nvalue = [12, 0]"] ;
33 -> 34 ;
35 [label="MonthlyIncome <= 112610.0\ngini = 0.41\nsamples = 125\nvalue = [36, 89]"] ;
33 -> 35 ;
36 [label="Age <= 39.0\ngini = 0.293\nsamples = 101\nvalue = [18, 83]"] ;
35 -> 36 ;
37 [label="Age <= 18.5\ngini = 0.259\nsamples = 98\nvalue = [15, 83]"] ;
36 -> 37 ;
38 [label="DistanceFromHome <= 4.0\ngini = 0.495\nsamples = 20\nvalue = [9, 11]"] ;
37 -> 38 ;
39 [label="PercentSalaryHike <= 20.0\ngini = 0.337\nsamples = 14\nvalue = [3, 11]"] ;
38 -> 39 ;
40 [label="gini = 0.0\nsamples = 11\nvalue = [0, 11]"] ;
39 -> 40 ;
41 [label="gini = 0.0\nsamples = 3\nvalue = [3, 0]"] ;
39 -> 41 ;
42 [label="gini = 0.0\nsamples = 6\nvalue = [6, 0]"] ;
38 -> 42 ;
43 [label="MonthlyIncome <= 105365.0\ngini = 0.142\nsamples = 78\nvalue = [6, 72]"] ;
37 -> 43 ;
44 [label="JobLevel <= 2.5\ngini = 0.08\nsamples = 72\nvalue = [3, 69]"] ;
43 -> 44 ;
45 [label="gini = 0.0\nsamples = 54\nvalue = [0, 54]"] ;
44 -> 45 ;
46 [label="Age <= 26.0\ngini = 0.278\nsamples = 18\nvalue = [3, 15]"] ;
44 -> 46 ;
47 [label="gini = 0.0\nsamples = 12\nvalue = [0, 12]"] ;
46 -> 47 ;
48 [label="Age <= 32.0\ngini = 0.5\nsamples = 6\nvalue = [3, 3]"] ;
46 -> 48 ;
49 [label="gini = 0.0\nsamples = 3\nvalue = [3, 0]"] ;
48 -> 49 ;
50 [label="gini = 0.0\nsamples = 3\nvalue = [0, 3]"] ;
48 -> 50 ;
51 [label="YearsSinceLastPromotion <= 0.5\ngini = 0.5\nsamples = 6\nvalue = [3, 3]"] ;
43 -> 51 ;
52 [label="gini = 0.0\nsamples = 3\nvalue = [3, 0]"] ;
51 -> 52 ;
53 [label="gini = 0.0\nsamples = 3\nvalue = [0, 3]"] ;
51 -> 53 ;
54 [label="gini = 0.0\nsamples = 3\nvalue = [3, 0]"] ;
36 -> 54 ;
55 [label="DistanceFromHome <= 5.0\ngini = 0.375\nsamples = 24\nvalue = [18, 6]"] ;
35 -> 55 ;
56 [label="gini = 0.0\nsamples = 15\nvalue = [15, 0]"] ;
55 -> 56 ;
57 [label="PercentSalaryHike <= 13.5\ngini = 0.444\nsamples = 9\nvalue = [3, 6]"] ;
55 -> 57 ;
58 [label="gini = 0.0\nsamples = 3\nvalue = [3, 0]"] ;
57 -> 58 ;
59 [label="gini = 0.0\nsamples = 6\nvalue = [0, 6]"] ;
57 -> 59 ;
60 [label="MaritalStatus <= 1.5\ngini = 0.24\nsamples = 4109\nvalue = [3537, 572]"] ;
0 -> 60 [labeldistance=2.5, labelangle=-45, headlabel="False"] ;
61 [label="NumCompaniesWorked <= 4.5\ngini = 0.192\nsamples = 2841\nvalue = [2536, 305]"] ;
60 -> 61 ;
62 [label="YearsWithCurrManager <= 0.5\ngini = 0.157\nsamples = 2224\nvalue = [2033, 191]"] ;
61 -> 62 ;
63 [label="Age <= 32.0\ngini = 0.302\nsamples = 259\nvalue = [211, 48]"] ;
62 -> 63 ;
64 [label="PercentSalaryHike <= 15.5\ngini = 0.48\nsamples = 45\nvalue = [27, 18]"] ;
63 -> 64 ;
65 [label="MaritalStatus <= 0.5\ngini = 0.444\nsamples = 27\nvalue = [9, 18]"] ;
64 -> 65 ;
66 [label="DistanceFromHome <= 9.0\ngini = 0.48\nsamples = 15\nvalue = [9, 6]"] ;
65 -> 66 ;
67 [label="TrainingTimesLastYear <= 2.5\ngini = 0.444\nsamples = 9\nvalue = [3, 6]"] ;
66 -> 67 ;
68 [label="gini = 0.0\nsamples = 3\nvalue = [3, 0]"] ;
67 -> 68 ;
69 [label="gini = 0.0\nsamples = 6\nvalue = [0, 6]"] ;
67 -> 69 ;
70 [label="gini = 0.0\nsamples = 6\nvalue = [6, 0]"] ;
66 -> 70 ;
71 [label="gini = 0.0\nsamples = 12\nvalue = [0, 12]"] ;
65 -> 71 ;
72 [label="gini = 0.0\nsamples = 18\nvalue = [18, 0]"] ;
64 -> 72 ;
73 [label="TotalWorkingYears <= 3.5\ngini = 0.241\nsamples = 214\nvalue = [184, 30]"] ;
63 -> 73 ;
74 [label="MonthlyIncome <= 82425.0\ngini = 0.444\nsamples = 9\nvalue = [3, 6]"] ;
73 -> 74 ;
75 [label="gini = 0.0\nsamples = 3\nvalue = [3, 0]"] ;
74 -> 75 ;
76 [label="gini = 0.0\nsamples = 6\nvalue = [0, 6]"] ;
74 -> 76 ;
77 [label="DistanceFromHome <= 15.5\ngini = 0.207\nsamples = 205\nvalue = [181, 24]"] ;
73 -> 77 ;
78 [label="TrainingTimesLastYear <= 0.5\ngini = 0.139\nsamples = 160\nvalue = [148, 12]"] ;
77 -> 78 ;
79 [label="PercentSalaryHike <= 14.5\ngini = 0.5\nsamples = 6\nvalue = [3, 3]"] ;
78 -> 79 ;
80 [label="gini = 0.0\nsamples = 3\nvalue = [3, 0]"] ;
79 -> 80 ;
81 [label="gini = 0.0\nsamples = 3\nvalue = [0, 3]"] ;
79 -> 81 ;
82 [label="MonthlyIncome <= 86245.0\ngini = 0.11\nsamples = 154\nvalue = [145, 9]"] ;
78 -> 82 ;
83 [label="TotalWorkingYears <= 18.0\ngini = 0.048\nsamples = 121\nvalue = [118, 3]"] ;
82 -> 83 ;
84 [label="gini = 0.0\nsamples = 91\nvalue = [91, 0]"] ;
83 -> 84 ;
85 [label="Age <= 41.0\ngini = 0.18\nsamples = 30\nvalue = [27, 3]"] ;
83 -> 85 ;
86 [label="gini = 0.0\nsamples = 3\nvalue = [0, 3]"] ;
85 -> 86 ;
87 [label="gini = 0.0\nsamples = 27\nvalue = [27, 0]"] ;
85 -> 87 ;
88 [label="MonthlyIncome <= 104905.0\ngini = 0.298\nsamples = 33\nvalue = [27, 6]"] ;
82 -> 88 ;
89 [label="Age <= 46.0\ngini = 0.444\nsamples = 9\nvalue = [3, 6]"] ;
88 -> 89 ;
90 [label="gini = 0.0\nsamples = 6\nvalue = [0, 6]"] ;
89 -> 90 ;
91 [label="gini = 0.0\nsamples = 3\nvalue = [3, 0]"] ;
89 -> 91 ;
92 [label="gini = 0.0\nsamples = 24\nvalue = [24, 0]"] ;
88 -> 92 ;
93 [label="PercentSalaryHike <= 13.5\ngini = 0.391\nsamples = 45\nvalue = [33, 12]"] ;
77 -> 93 ;
94 [label="Age <= 52.5\ngini = 0.375\nsamples = 12\nvalue = [3, 9]"] ;
93 -> 94 ;
95 [label="gini = 0.0\nsamples = 9\nvalue = [0, 9]"] ;
94 -> 95 ;
96 [label="gini = 0.0\nsamples = 3\nvalue = [3, 0]"] ;
94 -> 96 ;
97 [label="DistanceFromHome <= 18.5\ngini = 0.165\nsamples = 33\nvalue = [30, 3]"] ;
93 -> 97 ;
98 [label="PercentSalaryHike <= 15.5\ngini = 0.5\nsamples = 6\nvalue = [3, 3]"] ;
97 -> 98 ;
99 [label="gini = 0.0\nsamples = 3\nvalue = [0, 3]"] ;
98 -> 99 ;
100 [label="gini = 0.0\nsamples = 3\nvalue = [3, 0]"] ;
98 -> 100 ;
101 [label="gini = 0.0\nsamples = 27\nvalue = [27, 0]"] ;
97 -> 101 ;
102 [label="YearsAtCompany <= 38.0\ngini = 0.135\nsamples = 1965\nvalue = [1822, 143]"] ;
62 -> 102 ;
103 [label="Age <= 31.5\ngini = 0.133\nsamples = 1962\nvalue = [1822, 140]"] ;
102 -> 103 ;
104 [label="MonthlyIncome <= 23090.0\ngini = 0.196\nsamples = 601\nvalue = [535, 66]"] ;
103 -> 104 ;
105 [label="MonthlyIncome <= 22375.0\ngini = 0.413\nsamples = 72\nvalue = [51, 21]"] ;
104 -> 105 ;
106 [label="PercentSalaryHike <= 17.0\ngini = 0.278\nsamples = 54\nvalue = [45, 9]"] ;
105 -> 106 ;
107 [label="gini = 0.0\nsamples = 33\nvalue = [33, 0]"] ;
106 -> 107 ;
108 [label="Gender <= 0.5\ngini = 0.49\nsamples = 21\nvalue = [12, 9]"] ;
106 -> 108 ;
109 [label="YearsWithCurrManager <= 4.5\ngini = 0.375\nsamples = 12\nvalue = [3, 9]"] ;
108 -> 109 ;
110 [label="gini = 0.0\nsamples = 3\nvalue = [3, 0]"] ;
109 -> 110 ;
111 [label="gini = 0.0\nsamples = 9\nvalue = [0, 9]"] ;
109 -> 111 ;
112 [label="gini = 0.0\nsamples = 9\nvalue = [9, 0]"] ;
108 -> 112 ;
113 [label="Age <= 30.0\ngini = 0.444\nsamples = 18\nvalue = [6, 12]"] ;
105 -> 113 ;
114 [label="gini = 0.0\nsamples = 12\nvalue = [0, 12]"] ;
113 -> 114 ;
115 [label="gini = 0.0\nsamples = 6\nvalue = [6, 0]"] ;
113 -> 115 ;
116 [label="MonthlyIncome <= 197020.0\ngini = 0.156\nsamples = 529\nvalue = [484, 45]"] ;
104 -> 116 ;
117 [label="NumCompaniesWorked <= 1.5\ngini = 0.147\nsamples = 526\nvalue = [484, 42]"] ;
116 -> 117 ;
118 [label="MonthlyIncome <= 49335.0\ngini = 0.115\nsamples = 440\nvalue = [413, 27]"] ;
117 -> 118 ;
119 [label="PercentSalaryHike <= 20.5\ngini = 0.033\nsamples = 181\nvalue = [178, 3]"] ;
118 -> 119 ;
120 [label="gini = 0.0\nsamples = 161\nvalue = [161, 0]"] ;
119 -> 120 ;
121 [label="TrainingTimesLastYear <= 2.5\ngini = 0.255\nsamples = 20\nvalue = [17, 3]"] ;
119 -> 121 ;
122 [label="gini = 0.0\nsamples = 17\nvalue = [17, 0]"] ;
121 -> 122 ;
123 [label="gini = 0.0\nsamples = 3\nvalue = [0, 3]"] ;
121 -> 123 ;
124 [label="MonthlyIncome <= 49640.0\ngini = 0.168\nsamples = 259\nvalue = [235, 24]"] ;
118 -> 124 ;
125 [label="gini = 0.0\nsamples = 3\nvalue = [0, 3]"] ;
124 -> 125 ;
126 [label="Age <= 23.5\ngini = 0.151\nsamples = 256\nvalue = [235, 21]"] ;
124 -> 126 ;
127 [label="YearsSinceLastPromotion <= 0.5\ngini = 0.408\nsamples = 21\nvalue = [15, 6]"] ;
126 -> 127 ;
128 [label="DistanceFromHome <= 17.5\ngini = 0.444\nsamples = 9\nvalue = [3, 6]"] ;
127 -> 128 ;
129 [label="gini = 0.0\nsamples = 6\nvalue = [0, 6]"] ;
128 -> 129 ;
130 [label="gini = 0.0\nsamples = 3\nvalue = [3, 0]"] ;
128 -> 130 ;
131 [label="gini = 0.0\nsamples = 12\nvalue = [12, 0]"] ;
127 -> 131 ;
132 [label="TotalWorkingYears <= 2.5\ngini = 0.12\nsamples = 235\nvalue = [220, 15]"] ;
126 -> 132 ;
133 [label="YearsWithCurrManager <= 1.5\ngini = 0.5\nsamples = 6\nvalue = [3, 3]"] ;
132 -> 133 ;
134 [label="gini = 0.0\nsamples = 3\nvalue = [3, 0]"] ;
133 -> 134 ;
135 [label="gini = 0.0\nsamples = 3\nvalue = [0, 3]"] ;
133 -> 135 ;
136 [label="DistanceFromHome <= 2.5\ngini = 0.099\nsamples = 229\nvalue = [217, 12]"] ;
132 -> 136 ;
137 [label="JobLevel <= 2.5\ngini = 0.227\nsamples = 69\nvalue = [60, 9]"] ;
136 -> 137 ;
138 [label="gini = 0.0\nsamples = 36\nvalue = [36, 0]"] ;
137 -> 138 ;
139 [label="JobLevel <= 3.5\ngini = 0.397\nsamples = 33\nvalue = [24, 9]"] ;
137 -> 139 ;
140 [label="MaritalStatus <= 0.5\ngini = 0.5\nsamples = 18\nvalue = [9, 9]"] ;
139 -> 140 ;
141 [label="gini = 0.0\nsamples = 6\nvalue = [6, 0]"] ;
140 -> 141 ;
142 [label="MonthlyIncome <= 58545.0\ngini = 0.375\nsamples = 12\nvalue = [3, 9]"] ;
140 -> 142 ;
143 [label="gini = 0.0\nsamples = 3\nvalue = [3, 0]"] ;
142 -> 143 ;
144 [label="gini = 0.0\nsamples = 9\nvalue = [0, 9]"] ;
142 -> 144 ;
145 [label="gini = 0.0\nsamples = 15\nvalue = [15, 0]"] ;
139 -> 145 ;
146 [label="Age <= 25.5\ngini = 0.037\nsamples = 160\nvalue = [157, 3]"] ;
136 -> 146 ;
147 [label="YearsSinceLastPromotion <= 4.0\ngini = 0.32\nsamples = 15\nvalue = [12, 3]"] ;
146 -> 147 ;
148 [label="gini = 0.0\nsamples = 12\nvalue = [12, 0]"] ;
147 -> 148 ;
149 [label="gini = 0.0\nsamples = 3\nvalue = [0, 3]"] ;
147 -> 149 ;
150 [label="gini = 0.0\nsamples = 145\nvalue = [145, 0]"] ;
146 -> 150 ;
151 [label="MonthlyIncome <= 181865.0\ngini = 0.288\nsamples = 86\nvalue = [71, 15]"] ;
117 -> 151 ;
152 [label="TrainingTimesLastYear <= 3.5\ngini = 0.247\nsamples = 83\nvalue = [71, 12]"] ;
151 -> 152 ;
153 [label="TotalWorkingYears <= 4.5\ngini = 0.097\nsamples = 59\nvalue = [56, 3]"] ;
152 -> 153 ;
154 [label="JobLevel <= 2.5\ngini = 0.5\nsamples = 6\nvalue = [3, 3]"] ;
153 -> 154 ;
155 [label="gini = 0.0\nsamples = 3\nvalue = [0, 3]"] ;
154 -> 155 ;
156 [label="gini = 0.0\nsamples = 3\nvalue = [3, 0]"] ;
154 -> 156 ;
157 [label="gini = 0.0\nsamples = 53\nvalue = [53, 0]"] ;
153 -> 157 ;
158 [label="TotalWorkingYears <= 8.0\ngini = 0.469\nsamples = 24\nvalue = [15, 9]"] ;
152 -> 158 ;
159 [label="gini = 0.0\nsamples = 6\nvalue = [0, 6]"] ;
158 -> 159 ;
160 [label="YearsSinceLastPromotion <= 4.0\ngini = 0.278\nsamples = 18\nvalue = [15, 3]"] ;
158 -> 160 ;
161 [label="gini = 0.0\nsamples = 15\nvalue = [15, 0]"] ;
160 -> 161 ;
162 [label="gini = 0.0\nsamples = 3\nvalue = [0, 3]"] ;
160 -> 162 ;
163 [label="gini = 0.0\nsamples = 3\nvalue = [0, 3]"] ;
151 -> 163 ;
164 [label="gini = 0.0\nsamples = 3\nvalue = [0, 3]"] ;
116 -> 164 ;
165 [label="YearsAtCompany <= 1.5\ngini = 0.103\nsamples = 1361\nvalue = [1287, 74]"] ;
103 -> 165 ;
166 [label="DistanceFromHome <= 1.5\ngini = 0.5\nsamples = 6\nvalue = [3, 3]"] ;
165 -> 166 ;
167 [label="gini = 0.0\nsamples = 3\nvalue = [3, 0]"] ;
166 -> 167 ;
168 [label="gini = 0.0\nsamples = 3\nvalue = [0, 3]"] ;
166 -> 168 ;
169 [label="YearsAtCompany <= 31.5\ngini = 0.099\nsamples = 1355\nvalue = [1284, 71]"] ;
165 -> 169 ;
170 [label="PercentSalaryHike <= 13.5\ngini = 0.093\nsamples = 1334\nvalue = [1269, 65]"] ;
169 -> 170 ;
171 [label="JobLevel <= 1.5\ngini = 0.132\nsamples = 593\nvalue = [551, 42]"] ;
170 -> 171 ;
172 [label="Age <= 43.5\ngini = 0.227\nsamples = 253\nvalue = [220, 33]"] ;
171 -> 172 ;
173 [label="Age <= 35.5\ngini = 0.131\nsamples = 170\nvalue = [158, 12]"] ;
172 -> 173 ;
174 [label="YearsWithCurrManager <= 1.5\ngini = 0.298\nsamples = 66\nvalue = [54, 12]"] ;
173 -> 174 ;
175 [label="gini = 0.0\nsamples = 3\nvalue = [0, 3]"] ;
174 -> 175 ;
176 [label="YearsSinceLastPromotion <= 8.5\ngini = 0.245\nsamples = 63\nvalue = [54, 9]"] ;
174 -> 176 ;
177 [label="Age <= 34.5\ngini = 0.18\nsamples = 60\nvalue = [54, 6]"] ;
176 -> 177 ;
178 [label="gini = 0.0\nsamples = 42\nvalue = [42, 0]"] ;
177 -> 178 ;
179 [label="DistanceFromHome <= 8.5\ngini = 0.444\nsamples = 18\nvalue = [12, 6]"] ;
177 -> 179 ;
180 [label="NumCompaniesWorked <= 2.0\ngini = 0.444\nsamples = 9\nvalue = [3, 6]"] ;
179 -> 180 ;
181 [label="gini = 0.0\nsamples = 6\nvalue = [0, 6]"] ;
180 -> 181 ;
182 [label="gini = 0.0\nsamples = 3\nvalue = [3, 0]"] ;
180 -> 182 ;
183 [label="gini = 0.0\nsamples = 9\nvalue = [9, 0]"] ;
179 -> 183 ;
184 [label="gini = 0.0\nsamples = 3\nvalue = [0, 3]"] ;
176 -> 184 ;
185 [label="gini = 0.0\nsamples = 104\nvalue = [104, 0]"] ;
173 -> 185 ;
186 [label="Gender <= 0.5\ngini = 0.378\nsamples = 83\nvalue = [62, 21]"] ;
172 -> 186 ;
187 [label="gini = 0.0\nsamples = 27\nvalue = [27, 0]"] ;
186 -> 187 ;
188 [label="TotalWorkingYears <= 13.5\ngini = 0.469\nsamples = 56\nvalue = [35, 21]"] ;
186 -> 188 ;
189 [label="PercentSalaryHike <= 12.5\ngini = 0.408\nsamples = 21\nvalue = [6, 15]"] ;
188 -> 189 ;
190 [label="gini = 0.0\nsamples = 15\nvalue = [0, 15]"] ;
189 -> 190 ;
191 [label="gini = 0.0\nsamples = 6\nvalue = [6, 0]"] ;
189 -> 191 ;
192 [label="DistanceFromHome <= 8.5\ngini = 0.284\nsamples = 35\nvalue = [29, 6]"] ;
188 -> 192 ;
193 [label="gini = 0.0\nsamples = 23\nvalue = [23, 0]"] ;
192 -> 193 ;
194 [label="DistanceFromHome <= 19.5\ngini = 0.5\nsamples = 12\nvalue = [6, 6]"] ;
192 -> 194 ;
195 [label="gini = 0.0\nsamples = 6\nvalue = [0, 6]"] ;
194 -> 195 ;
196 [label="gini = 0.0\nsamples = 6\nvalue = [6, 0]"] ;
194 -> 196 ;
197 [label="MonthlyIncome <= 22450.0\ngini = 0.052\nsamples = 340\nvalue = [331, 9]"] ;
171 -> 197 ;
198 [label="Age <= 37.0\ngini = 0.298\nsamples = 33\nvalue = [27, 6]"] ;
197 -> 198 ;
199 [label="TrainingTimesLastYear <= 2.5\ngini = 0.444\nsamples = 9\nvalue = [3, 6]"] ;
198 -> 199 ;
200 [label="gini = 0.0\nsamples = 6\nvalue = [0, 6]"] ;
199 -> 200 ;
201 [label="gini = 0.0\nsamples = 3\nvalue = [3, 0]"] ;
199 -> 201 ;
202 [label="gini = 0.0\nsamples = 24\nvalue = [24, 0]"] ;
198 -> 202 ;
203 [label="YearsSinceLastPromotion <= 13.0\ngini = 0.019\nsamples = 307\nvalue = [304, 3]"] ;
197 -> 203 ;
204 [label="gini = 0.0\nsamples = 298\nvalue = [298, 0]"] ;
203 -> 204 ;
205 [label="TotalWorkingYears <= 23.5\ngini = 0.444\nsamples = 9\nvalue = [6, 3]"] ;
203 -> 205 ;
206 [label="gini = 0.0\nsamples = 3\nvalue = [0, 3]"] ;
205 -> 206 ;
207 [label="gini = 0.0\nsamples = 6\nvalue = [6, 0]"] ;
205 -> 207 ;
208 [label="TotalWorkingYears <= 2.5\ngini = 0.06\nsamples = 741\nvalue = [718, 23]"] ;
170 -> 208 ;
209 [label="PercentSalaryHike <= 17.0\ngini = 0.5\nsamples = 6\nvalue = [3, 3]"] ;
208 -> 209 ;
210 [label="gini = 0.0\nsamples = 3\nvalue = [0, 3]"] ;
209 -> 210 ;
211 [label="gini = 0.0\nsamples = 3\nvalue = [3, 0]"] ;
209 -> 211 ;
212 [label="MonthlyIncome <= 44140.0\ngini = 0.053\nsamples = 735\nvalue = [715, 20]"] ;
208 -> 212 ;
213 [label="gini = 0.0\nsamples = 311\nvalue = [311, 0]"] ;
212 -> 213 ;
214 [label="MonthlyIncome <= 44365.0\ngini = 0.09\nsamples = 424\nvalue = [404, 20]"] ;
212 -> 214 ;
215 [label="gini = 0.0\nsamples = 3\nvalue = [0, 3]"] ;
214 -> 215 ;
216 [label="TotalWorkingYears <= 11.5\ngini = 0.077\nsamples = 421\nvalue = [404, 17]"] ;
214 -> 216 ;
217 [label="PercentSalaryHike <= 22.5\ngini = 0.138\nsamples = 228\nvalue = [211, 17]"] ;
216 -> 217 ;
218 [label="Gender <= 0.5\ngini = 0.117\nsamples = 225\nvalue = [211, 14]"] ;
217 -> 218 ;
219 [label="Age <= 50.5\ngini = 0.24\nsamples = 86\nvalue = [74, 12]"] ;
218 -> 219 ;
220 [label="YearsAtCompany <= 8.5\ngini = 0.193\nsamples = 83\nvalue = [74, 9]"] ;
219 -> 220 ;
221 [label="NumCompaniesWorked <= 3.5\ngini = 0.097\nsamples = 59\nvalue = [56, 3]"] ;
220 -> 221 ;
222 [label="gini = 0.0\nsamples = 50\nvalue = [50, 0]"] ;
221 -> 222 ;
223 [label="TotalWorkingYears <= 8.0\ngini = 0.444\nsamples = 9\nvalue = [6, 3]"] ;
221 -> 223 ;
224 [label="gini = 0.0\nsamples = 3\nvalue = [0, 3]"] ;
223 -> 224 ;
225 [label="gini = 0.0\nsamples = 6\nvalue = [6, 0]"] ;
223 -> 225 ;
226 [label="TrainingTimesLastYear <= 2.5\ngini = 0.375\nsamples = 24\nvalue = [18, 6]"] ;
220 -> 226 ;
227 [label="TotalWorkingYears <= 9.5\ngini = 0.245\nsamples = 21\nvalue = [18, 3]"] ;
226 -> 227 ;
228 [label="YearsWithCurrManager <= 7.5\ngini = 0.5\nsamples = 6\nvalue = [3, 3]"] ;
227 -> 228 ;
229 [label="gini = 0.0\nsamples = 3\nvalue = [0, 3]"] ;
228 -> 229 ;
230 [label="gini = 0.0\nsamples = 3\nvalue = [3, 0]"] ;
228 -> 230 ;
231 [label="gini = 0.0\nsamples = 15\nvalue = [15, 0]"] ;
227 -> 231 ;
232 [label="gini = 0.0\nsamples = 3\nvalue = [0, 3]"] ;
226 -> 232 ;
233 [label="gini = 0.0\nsamples = 3\nvalue = [0, 3]"] ;
219 -> 233 ;
234 [label="NumCompaniesWorked <= 3.5\ngini = 0.028\nsamples = 139\nvalue = [137, 2]"] ;
218 -> 234 ;
235 [label="gini = 0.0\nsamples = 125\nvalue = [125, 0]"] ;
234 -> 235 ;
236 [label="YearsWithCurrManager <= 2.5\ngini = 0.245\nsamples = 14\nvalue = [12, 2]"] ;
234 -> 236 ;
237 [label="gini = 0.0\nsamples = 2\nvalue = [0, 2]"] ;
236 -> 237 ;
238 [label="gini = 0.0\nsamples = 12\nvalue = [12, 0]"] ;
236 -> 238 ;
239 [label="gini = 0.0\nsamples = 3\nvalue = [0, 3]"] ;
217 -> 239 ;
240 [label="gini = 0.0\nsamples = 193\nvalue = [193, 0]"] ;
216 -> 240 ;
241 [label="MonthlyIncome <= 26260.0\ngini = 0.408\nsamples = 21\nvalue = [15, 6]"] ;
169 -> 241 ;
242 [label="gini = 0.0\nsamples = 6\nvalue = [0, 6]"] ;
241 -> 242 ;
243 [label="gini = 0.0\nsamples = 15\nvalue = [15, 0]"] ;
241 -> 243 ;
244 [label="gini = 0.0\nsamples = 3\nvalue = [0, 3]"] ;
102 -> 244 ;
245 [label="MonthlyIncome <= 23215.0\ngini = 0.301\nsamples = 617\nvalue = [503, 114]"] ;
61 -> 245 ;
246 [label="NumCompaniesWorked <= 8.5\ngini = 0.492\nsamples = 48\nvalue = [27, 21]"] ;
245 -> 246 ;
247 [label="TotalWorkingYears <= 7.5\ngini = 0.375\nsamples = 36\nvalue = [27, 9]"] ;
246 -> 247 ;
248 [label="TrainingTimesLastYear <= 3.5\ngini = 0.444\nsamples = 9\nvalue = [3, 6]"] ;
247 -> 248 ;
249 [label="gini = 0.0\nsamples = 3\nvalue = [3, 0]"] ;
248 -> 249 ;
250 [label="gini = 0.0\nsamples = 6\nvalue = [0, 6]"] ;
248 -> 250 ;
251 [label="MonthlyIncome <= 12860.0\ngini = 0.198\nsamples = 27\nvalue = [24, 3]"] ;
247 -> 251 ;
252 [label="gini = 0.0\nsamples = 3\nvalue = [0, 3]"] ;
251 -> 252 ;
253 [label="gini = 0.0\nsamples = 24\nvalue = [24, 0]"] ;
251 -> 253 ;
254 [label="gini = 0.0\nsamples = 12\nvalue = [0, 12]"] ;
246 -> 254 ;
255 [label="DistanceFromHome <= 15.5\ngini = 0.273\nsamples = 569\nvalue = [476, 93]"] ;
245 -> 255 ;
256 [label="TotalWorkingYears <= 7.5\ngini = 0.32\nsamples = 450\nvalue = [360, 90]"] ;
255 -> 256 ;
257 [label="MonthlyIncome <= 48050.0\ngini = 0.444\nsamples = 117\nvalue = [78, 39]"] ;
256 -> 257 ;
258 [label="MonthlyIncome <= 35460.0\ngini = 0.308\nsamples = 63\nvalue = [51, 12]"] ;
257 -> 258 ;
259 [label="TrainingTimesLastYear <= 3.5\ngini = 0.463\nsamples = 33\nvalue = [21, 12]"] ;
258 -> 259 ;
260 [label="YearsWithCurrManager <= 2.5\ngini = 0.346\nsamples = 27\nvalue = [21, 6]"] ;
259 -> 260 ;
261 [label="Age <= 26.0\ngini = 0.219\nsamples = 24\nvalue = [21, 3]"] ;
260 -> 261 ;
262 [label="gini = 0.0\nsamples = 3\nvalue = [0, 3]"] ;
261 -> 262 ;
263 [label="gini = 0.0\nsamples = 21\nvalue = [21, 0]"] ;
261 -> 263 ;
264 [label="gini = 0.0\nsamples = 3\nvalue = [0, 3]"] ;
260 -> 264 ;
265 [label="gini = 0.0\nsamples = 6\nvalue = [0, 6]"] ;
259 -> 265 ;
266 [label="gini = 0.0\nsamples = 30\nvalue = [30, 0]"] ;
258 -> 266 ;
267 [label="NumCompaniesWorked <= 6.5\ngini = 0.5\nsamples = 54\nvalue = [27, 27]"] ;
257 -> 267 ;
268 [label="MonthlyIncome <= 100455.0\ngini = 0.397\nsamples = 33\nvalue = [9, 24]"] ;
267 -> 268 ;
269 [label="gini = 0.0\nsamples = 15\nvalue = [0, 15]"] ;
268 -> 269 ;
270 [label="TrainingTimesLastYear <= 4.0\ngini = 0.5\nsamples = 18\nvalue = [9, 9]"] ;
268 -> 270 ;
271 [label="PercentSalaryHike <= 18.0\ngini = 0.375\nsamples = 12\nvalue = [3, 9]"] ;
270 -> 271 ;
272 [label="gini = 0.0\nsamples = 9\nvalue = [0, 9]"] ;
271 -> 272 ;
273 [label="gini = 0.0\nsamples = 3\nvalue = [3, 0]"] ;
271 -> 273 ;
274 [label="gini = 0.0\nsamples = 6\nvalue = [6, 0]"] ;
270 -> 274 ;
275 [label="Age <= 42.5\ngini = 0.245\nsamples = 21\nvalue = [18, 3]"] ;
267 -> 275 ;
276 [label="gini = 0.0\nsamples = 18\nvalue = [18, 0]"] ;
275 -> 276 ;
277 [label="gini = 0.0\nsamples = 3\nvalue = [0, 3]"] ;
275 -> 277 ;
278 [label="PercentSalaryHike <= 24.5\ngini = 0.259\nsamples = 333\nvalue = [282, 51]"] ;
256 -> 278 ;
279 [label="DistanceFromHome <= 9.5\ngini = 0.239\nsamples = 324\nvalue = [279, 45]"] ;
278 -> 279 ;
280 [label="DistanceFromHome <= 1.5\ngini = 0.179\nsamples = 271\nvalue = [244, 27]"] ;
279 -> 280 ;
281 [label="YearsSinceLastPromotion <= 8.5\ngini = 0.36\nsamples = 51\nvalue = [39, 12]"] ;
280 -> 281 ;
282 [label="Age <= 36.5\ngini = 0.231\nsamples = 45\nvalue = [39, 6]"] ;
281 -> 282 ;
283 [label="MonthlyIncome <= 70025.0\ngini = 0.48\nsamples = 15\nvalue = [9, 6]"] ;
282 -> 283 ;
284 [label="gini = 0.0\nsamples = 6\nvalue = [0, 6]"] ;
283 -> 284 ;
285 [label="gini = 0.0\nsamples = 9\nvalue = [9, 0]"] ;
283 -> 285 ;
286 [label="gini = 0.0\nsamples = 30\nvalue = [30, 0]"] ;
282 -> 286 ;
287 [label="gini = 0.0\nsamples = 6\nvalue = [0, 6]"] ;
281 -> 287 ;
288 [label="YearsWithCurrManager <= 1.5\ngini = 0.127\nsamples = 220\nvalue = [205, 15]"] ;
280 -> 288 ;
289 [label="MonthlyIncome <= 102235.0\ngini = 0.346\nsamples = 54\nvalue = [42, 12]"] ;
288 -> 289 ;
290 [label="MaritalStatus <= 0.5\ngini = 0.231\nsamples = 45\nvalue = [39, 6]"] ;
289 -> 290 ;
291 [label="Age <= 35.0\ngini = 0.48\nsamples = 15\nvalue = [9, 6]"] ;
290 -> 291 ;
292 [label="gini = 0.0\nsamples = 9\nvalue = [9, 0]"] ;
291 -> 292 ;
293 [label="gini = 0.0\nsamples = 6\nvalue = [0, 6]"] ;
291 -> 293 ;
294 [label="gini = 0.0\nsamples = 30\nvalue = [30, 0]"] ;
290 -> 294 ;
295 [label="YearsSinceLastPromotion <= 2.5\ngini = 0.444\nsamples = 9\nvalue = [3, 6]"] ;
289 -> 295 ;
296 [label="gini = 0.0\nsamples = 6\nvalue = [0, 6]"] ;
295 -> 296 ;
297 [label="gini = 0.0\nsamples = 3\nvalue = [3, 0]"] ;
295 -> 297 ;
298 [label="Age <= 54.5\ngini = 0.035\nsamples = 166\nvalue = [163, 3]"] ;
288 -> 298 ;
299 [label="gini = 0.0\nsamples = 160\nvalue = [160, 0]"] ;
298 -> 299 ;
300 [label="JobLevel <= 2.5\ngini = 0.5\nsamples = 6\nvalue = [3, 3]"] ;
298 -> 300 ;
301 [label="gini = 0.0\nsamples = 3\nvalue = [3, 0]"] ;
300 -> 301 ;
302 [label="gini = 0.0\nsamples = 3\nvalue = [0, 3]"] ;
300 -> 302 ;
303 [label="YearsAtCompany <= 2.5\ngini = 0.449\nsamples = 53\nvalue = [35, 18]"] ;
279 -> 303 ;
304 [label="gini = 0.0\nsamples = 6\nvalue = [0, 6]"] ;
303 -> 304 ;
305 [label="PercentSalaryHike <= 20.0\ngini = 0.38\nsamples = 47\nvalue = [35, 12]"] ;
303 -> 305 ;
306 [label="YearsSinceLastPromotion <= 9.0\ngini = 0.157\nsamples = 35\nvalue = [32, 3]"] ;
305 -> 306 ;
307 [label="gini = 0.0\nsamples = 32\nvalue = [32, 0]"] ;
306 -> 307 ;
308 [label="gini = 0.0\nsamples = 3\nvalue = [0, 3]"] ;
306 -> 308 ;
309 [label="NumCompaniesWorked <= 8.5\ngini = 0.375\nsamples = 12\nvalue = [3, 9]"] ;
305 -> 309 ;
310 [label="gini = 0.0\nsamples = 9\nvalue = [0, 9]"] ;
309 -> 310 ;
311 [label="gini = 0.0\nsamples = 3\nvalue = [3, 0]"] ;
309 -> 311 ;
312 [label="TrainingTimesLastYear <= 0.5\ngini = 0.444\nsamples = 9\nvalue = [3, 6]"] ;
278 -> 312 ;
313 [label="gini = 0.0\nsamples = 3\nvalue = [3, 0]"] ;
312 -> 313 ;
314 [label="gini = 0.0\nsamples = 6\nvalue = [0, 6]"] ;
312 -> 314 ;
315 [label="MonthlyIncome <= 191585.0\ngini = 0.049\nsamples = 119\nvalue = [116, 3]"] ;
255 -> 315 ;
316 [label="gini = 0.0\nsamples = 116\nvalue = [116, 0]"] ;
315 -> 316 ;
317 [label="gini = 0.0\nsamples = 3\nvalue = [0, 3]"] ;
315 -> 317 ;
318 [label="Age <= 33.5\ngini = 0.332\nsamples = 1268\nvalue = [1001, 267]"] ;
60 -> 318 ;
319 [label="YearsAtCompany <= 2.5\ngini = 0.427\nsamples = 508\nvalue = [351, 157]"] ;
318 -> 319 ;
320 [label="NumCompaniesWorked <= 1.5\ngini = 0.494\nsamples = 108\nvalue = [48, 60]"] ;
319 -> 320 ;
321 [label="DistanceFromHome <= 3.5\ngini = 0.43\nsamples = 48\nvalue = [33, 15]"] ;
320 -> 321 ;
322 [label="gini = 0.0\nsamples = 12\nvalue = [12, 0]"] ;
321 -> 322 ;
323 [label="TrainingTimesLastYear <= 2.5\ngini = 0.486\nsamples = 36\nvalue = [21, 15]"] ;
321 -> 323 ;
324 [label="JobLevel <= 3.5\ngini = 0.278\nsamples = 18\nvalue = [15, 3]"] ;
323 -> 324 ;
325 [label="gini = 0.0\nsamples = 15\nvalue = [15, 0]"] ;
324 -> 325 ;
326 [label="gini = 0.0\nsamples = 3\nvalue = [0, 3]"] ;
324 -> 326 ;
327 [label="JobLevel <= 4.0\ngini = 0.444\nsamples = 18\nvalue = [6, 12]"] ;
323 -> 327 ;
328 [label="gini = 0.0\nsamples = 9\nvalue = [0, 9]"] ;
327 -> 328 ;
329 [label="DistanceFromHome <= 5.0\ngini = 0.444\nsamples = 9\nvalue = [6, 3]"] ;
327 -> 329 ;
330 [label="gini = 0.0\nsamples = 3\nvalue = [0, 3]"] ;
329 -> 330 ;
331 [label="gini = 0.0\nsamples = 6\nvalue = [6, 0]"] ;
329 -> 331 ;
332 [label="TotalWorkingYears <= 11.5\ngini = 0.375\nsamples = 60\nvalue = [15, 45]"] ;
320 -> 332 ;
333 [label="Age <= 31.5\ngini = 0.278\nsamples = 54\nvalue = [9, 45]"] ;
332 -> 333 ;
334 [label="gini = 0.0\nsamples = 33\nvalue = [0, 33]"] ;
333 -> 334 ;
335 [label="MonthlyIncome <= 43145.0\ngini = 0.49\nsamples = 21\nvalue = [9, 12]"] ;
333 -> 335 ;
336 [label="gini = 0.0\nsamples = 9\nvalue = [0, 9]"] ;
335 -> 336 ;
337 [label="MonthlyIncome <= 67250.0\ngini = 0.375\nsamples = 12\nvalue = [9, 3]"] ;
335 -> 337 ;
338 [label="gini = 0.0\nsamples = 9\nvalue = [9, 0]"] ;
337 -> 338 ;
339 [label="gini = 0.0\nsamples = 3\nvalue = [0, 3]"] ;
337 -> 339 ;
340 [label="gini = 0.0\nsamples = 6\nvalue = [6, 0]"] ;
332 -> 340 ;
341 [label="YearsSinceLastPromotion <= 6.5\ngini = 0.367\nsamples = 400\nvalue = [303, 97]"] ;
319 -> 341 ;
342 [label="NumCompaniesWorked <= 4.5\ngini = 0.336\nsamples = 370\nvalue = [291, 79]"] ;
341 -> 342 ;
343 [label="TotalWorkingYears <= 13.0\ngini = 0.288\nsamples = 309\nvalue = [255, 54]"] ;
342 -> 343 ;
344 [label="MonthlyIncome <= 178680.0\ngini = 0.278\nsamples = 306\nvalue = [255, 51]"] ;
343 -> 344 ;
345 [label="YearsSinceLastPromotion <= 5.5\ngini = 0.249\nsamples = 288\nvalue = [246, 42]"] ;
344 -> 345 ;
346 [label="TotalWorkingYears <= 7.5\ngini = 0.236\nsamples = 285\nvalue = [246, 39]"] ;
345 -> 346 ;
347 [label="DistanceFromHome <= 25.5\ngini = 0.307\nsamples = 174\nvalue = [141, 33]"] ;
346 -> 347 ;
348 [label="Age <= 28.5\ngini = 0.27\nsamples = 168\nvalue = [141, 27]"] ;
347 -> 348 ;
349 [label="YearsAtCompany <= 4.5\ngini = 0.153\nsamples = 108\nvalue = [99, 9]"] ;
348 -> 349 ;
350 [label="gini = 0.0\nsamples = 51\nvalue = [51, 0]"] ;
349 -> 350 ;
351 [label="Age <= 23.5\ngini = 0.266\nsamples = 57\nvalue = [48, 9]"] ;
349 -> 351 ;
352 [label="gini = 0.0\nsamples = 3\nvalue = [0, 3]"] ;
351 -> 352 ;
353 [label="MonthlyIncome <= 74970.0\ngini = 0.198\nsamples = 54\nvalue = [48, 6]"] ;
351 -> 353 ;
354 [label="gini = 0.0\nsamples = 33\nvalue = [33, 0]"] ;
353 -> 354 ;
355 [label="YearsAtCompany <= 5.5\ngini = 0.408\nsamples = 21\nvalue = [15, 6]"] ;
353 -> 355 ;
356 [label="gini = 0.0\nsamples = 12\nvalue = [12, 0]"] ;
355 -> 356 ;
357 [label="YearsWithCurrManager <= 5.5\ngini = 0.444\nsamples = 9\nvalue = [3, 6]"] ;
355 -> 357 ;
358 [label="gini = 0.0\nsamples = 6\nvalue = [0, 6]"] ;
357 -> 358 ;
359 [label="gini = 0.0\nsamples = 3\nvalue = [3, 0]"] ;
357 -> 359 ;
360 [label="JobLevel <= 1.5\ngini = 0.42\nsamples = 60\nvalue = [42, 18]"] ;
348 -> 360 ;
361 [label="DistanceFromHome <= 2.5\ngini = 0.494\nsamples = 27\nvalue = [12, 15]"] ;
360 -> 361 ;
362 [label="Age <= 29.5\ngini = 0.32\nsamples = 15\nvalue = [12, 3]"] ;
361 -> 362 ;
363 [label="gini = 0.0\nsamples = 3\nvalue = [0, 3]"] ;
362 -> 363 ;
364 [label="gini = 0.0\nsamples = 12\nvalue = [12, 0]"] ;
362 -> 364 ;
365 [label="gini = 0.0\nsamples = 12\nvalue = [0, 12]"] ;
361 -> 365 ;
366 [label="MonthlyIncome <= 25275.0\ngini = 0.165\nsamples = 33\nvalue = [30, 3]"] ;
360 -> 366 ;
367 [label="gini = 0.0\nsamples = 3\nvalue = [0, 3]"] ;
366 -> 367 ;
368 [label="gini = 0.0\nsamples = 30\nvalue = [30, 0]"] ;
366 -> 368 ;
369 [label="gini = 0.0\nsamples = 6\nvalue = [0, 6]"] ;
347 -> 369 ;
370 [label="YearsAtCompany <= 9.5\ngini = 0.102\nsamples = 111\nvalue = [105, 6]"] ;
346 -> 370 ;
371 [label="gini = 0.0\nsamples = 69\nvalue = [69, 0]"] ;
370 -> 371 ;
372 [label="Age <= 28.5\ngini = 0.245\nsamples = 42\nvalue = [36, 6]"] ;
370 -> 372 ;
373 [label="gini = 0.0\nsamples = 3\nvalue = [0, 3]"] ;
372 -> 373 ;
374 [label="YearsSinceLastPromotion <= 3.5\ngini = 0.142\nsamples = 39\nvalue = [36, 3]"] ;
372 -> 374 ;
375 [label="gini = 0.0\nsamples = 27\nvalue = [27, 0]"] ;
374 -> 375 ;
376 [label="YearsAtCompany <= 10.5\ngini = 0.375\nsamples = 12\nvalue = [9, 3]"] ;
374 -> 376 ;
377 [label="gini = 0.0\nsamples = 3\nvalue = [0, 3]"] ;
376 -> 377 ;
378 [label="gini = 0.0\nsamples = 9\nvalue = [9, 0]"] ;
376 -> 378 ;
379 [label="gini = 0.0\nsamples = 3\nvalue = [0, 3]"] ;
345 -> 379 ;
380 [label="YearsAtCompany <= 4.5\ngini = 0.5\nsamples = 18\nvalue = [9, 9]"] ;
344 -> 380 ;
381 [label="gini = 0.0\nsamples = 9\nvalue = [0, 9]"] ;
380 -> 381 ;
382 [label="gini = 0.0\nsamples = 9\nvalue = [9, 0]"] ;
380 -> 382 ;
383 [label="gini = 0.0\nsamples = 3\nvalue = [0, 3]"] ;
343 -> 383 ;
384 [label="NumCompaniesWorked <= 6.5\ngini = 0.484\nsamples = 61\nvalue = [36, 25]"] ;
342 -> 384 ;
385 [label="gini = 0.0\nsamples = 19\nvalue = [0, 19]"] ;
384 -> 385 ;
386 [label="TrainingTimesLastYear <= 1.0\ngini = 0.245\nsamples = 42\nvalue = [36, 6]"] ;
384 -> 386 ;
387 [label="gini = 0.0\nsamples = 6\nvalue = [0, 6]"] ;
386 -> 387 ;
388 [label="gini = 0.0\nsamples = 36\nvalue = [36, 0]"] ;
386 -> 388 ;
389 [label="TrainingTimesLastYear <= 5.5\ngini = 0.48\nsamples = 30\nvalue = [12, 18]"] ;
341 -> 389 ;
390 [label="TotalWorkingYears <= 12.5\ngini = 0.245\nsamples = 21\nvalue = [3, 18]"] ;
389 -> 390 ;
391 [label="gini = 0.0\nsamples = 18\nvalue = [0, 18]"] ;
390 -> 391 ;
392 [label="gini = 0.0\nsamples = 3\nvalue = [3, 0]"] ;
390 -> 392 ;
393 [label="gini = 0.0\nsamples = 9\nvalue = [9, 0]"] ;
389 -> 393 ;
394 [label="TrainingTimesLastYear <= 1.5\ngini = 0.248\nsamples = 760\nvalue = [650, 110]"] ;
318 -> 394 ;
395 [label="TotalWorkingYears <= 11.5\ngini = 0.444\nsamples = 63\nvalue = [42, 21]"] ;
394 -> 395 ;
396 [label="Age <= 38.5\ngini = 0.496\nsamples = 33\nvalue = [15, 18]"] ;
395 -> 396 ;
397 [label="gini = 0.0\nsamples = 12\nvalue = [12, 0]"] ;
396 -> 397 ;
398 [label="TotalWorkingYears <= 8.5\ngini = 0.245\nsamples = 21\nvalue = [3, 18]"] ;
396 -> 398 ;
399 [label="JobLevel <= 3.0\ngini = 0.5\nsamples = 6\nvalue = [3, 3]"] ;
398 -> 399 ;
400 [label="gini = 0.0\nsamples = 3\nvalue = [3, 0]"] ;
399 -> 400 ;
401 [label="gini = 0.0\nsamples = 3\nvalue = [0, 3]"] ;
399 -> 401 ;
402 [label="gini = 0.0\nsamples = 15\nvalue = [0, 15]"] ;
398 -> 402 ;
403 [label="DistanceFromHome <= 17.0\ngini = 0.18\nsamples = 30\nvalue = [27, 3]"] ;
395 -> 403 ;
404 [label="gini = 0.0\nsamples = 27\nvalue = [27, 0]"] ;
403 -> 404 ;
405 [label="gini = 0.0\nsamples = 3\nvalue = [0, 3]"] ;
403 -> 405 ;
406 [label="MonthlyIncome <= 19275.0\ngini = 0.223\nsamples = 697\nvalue = [608, 89]"] ;
394 -> 406 ;
407 [label="DistanceFromHome <= 3.5\ngini = 0.444\nsamples = 9\nvalue = [3, 6]"] ;
406 -> 407 ;
408 [label="gini = 0.0\nsamples = 3\nvalue = [3, 0]"] ;
407 -> 408 ;
409 [label="gini = 0.0\nsamples = 6\nvalue = [0, 6]"] ;
407 -> 409 ;
410 [label="TotalWorkingYears <= 39.0\ngini = 0.212\nsamples = 688\nvalue = [605, 83]"] ;
406 -> 410 ;
411 [label="MonthlyIncome <= 65955.0\ngini = 0.206\nsamples = 685\nvalue = [605, 80]"] ;
410 -> 411 ;
412 [label="MonthlyIncome <= 54390.0\ngini = 0.247\nsamples = 493\nvalue = [422, 71]"] ;
411 -> 412 ;
413 [label="Age <= 38.5\ngini = 0.178\nsamples = 415\nvalue = [374, 41]"] ;
412 -> 413 ;
414 [label="gini = 0.0\nsamples = 156\nvalue = [156, 0]"] ;
413 -> 414 ;
415 [label="TotalWorkingYears <= 8.5\ngini = 0.266\nsamples = 259\nvalue = [218, 41]"] ;
413 -> 415 ;
416 [label="YearsAtCompany <= 5.5\ngini = 0.459\nsamples = 56\nvalue = [36, 20]"] ;
415 -> 416 ;
417 [label="PercentSalaryHike <= 19.0\ngini = 0.359\nsamples = 47\nvalue = [36, 11]"] ;
416 -> 417 ;
418 [label="NumCompaniesWorked <= 7.0\ngini = 0.214\nsamples = 41\nvalue = [36, 5]"] ;
417 -> 418 ;
419 [label="Age <= 45.5\ngini = 0.108\nsamples = 35\nvalue = [33, 2]"] ;
418 -> 419 ;
420 [label="gini = 0.0\nsamples = 27\nvalue = [27, 0]"] ;
419 -> 420 ;
421 [label="MonthlyIncome <= 29850.0\ngini = 0.375\nsamples = 8\nvalue = [6, 2]"] ;
419 -> 421 ;
422 [label="gini = 0.0\nsamples = 2\nvalue = [0, 2]"] ;
421 -> 422 ;
423 [label="gini = 0.0\nsamples = 6\nvalue = [6, 0]"] ;
421 -> 423 ;
424 [label="PercentSalaryHike <= 15.5\ngini = 0.5\nsamples = 6\nvalue = [3, 3]"] ;
418 -> 424 ;
425 [label="gini = 0.0\nsamples = 3\nvalue = [0, 3]"] ;
424 -> 425 ;
426 [label="gini = 0.0\nsamples = 3\nvalue = [3, 0]"] ;
424 -> 426 ;
427 [label="gini = 0.0\nsamples = 6\nvalue = [0, 6]"] ;
417 -> 427 ;
428 [label="gini = 0.0\nsamples = 9\nvalue = [0, 9]"] ;
416 -> 428 ;
429 [label="MonthlyIncome <= 42775.0\ngini = 0.185\nsamples = 203\nvalue = [182, 21]"] ;
415 -> 429 ;
430 [label="YearsWithCurrManager <= 13.0\ngini = 0.111\nsamples = 152\nvalue = [143, 9]"] ;
429 -> 430 ;
431 [label="YearsAtCompany <= 4.5\ngini = 0.079\nsamples = 146\nvalue = [140, 6]"] ;
430 -> 431 ;
432 [label="Age <= 47.5\ngini = 0.211\nsamples = 50\nvalue = [44, 6]"] ;
431 -> 432 ;
433 [label="gini = 0.0\nsamples = 35\nvalue = [35, 0]"] ;
432 -> 433 ;
434 [label="PercentSalaryHike <= 14.0\ngini = 0.48\nsamples = 15\nvalue = [9, 6]"] ;
432 -> 434 ;
435 [label="gini = 0.0\nsamples = 6\nvalue = [6, 0]"] ;
434 -> 435 ;
436 [label="MonthlyIncome <= 23250.0\ngini = 0.444\nsamples = 9\nvalue = [3, 6]"] ;
434 -> 436 ;
437 [label="gini = 0.0\nsamples = 3\nvalue = [3, 0]"] ;
436 -> 437 ;
438 [label="gini = 0.0\nsamples = 6\nvalue = [0, 6]"] ;
436 -> 438 ;
439 [label="gini = 0.0\nsamples = 96\nvalue = [96, 0]"] ;
431 -> 439 ;
440 [label="MonthlyIncome <= 24245.0\ngini = 0.5\nsamples = 6\nvalue = [3, 3]"] ;
430 -> 440 ;
441 [label="gini = 0.0\nsamples = 3\nvalue = [0, 3]"] ;
440 -> 441 ;
442 [label="gini = 0.0\nsamples = 3\nvalue = [3, 0]"] ;
440 -> 442 ;
443 [label="MonthlyIncome <= 43465.0\ngini = 0.36\nsamples = 51\nvalue = [39, 12]"] ;
429 -> 443 ;
444 [label="gini = 0.0\nsamples = 6\nvalue = [0, 6]"] ;
443 -> 444 ;
445 [label="YearsWithCurrManager <= 0.5\ngini = 0.231\nsamples = 45\nvalue = [39, 6]"] ;
443 -> 445 ;
446 [label="TotalWorkingYears <= 24.5\ngini = 0.444\nsamples = 9\nvalue = [3, 6]"] ;
445 -> 446 ;
447 [label="gini = 0.0\nsamples = 6\nvalue = [0, 6]"] ;
446 -> 447 ;
448 [label="gini = 0.0\nsamples = 3\nvalue = [3, 0]"] ;
446 -> 448 ;
449 [label="gini = 0.0\nsamples = 36\nvalue = [36, 0]"] ;
445 -> 449 ;
450 [label="Age <= 41.0\ngini = 0.473\nsamples = 78\nvalue = [48, 30]"] ;
412 -> 450 ;
451 [label="DistanceFromHome <= 9.5\ngini = 0.459\nsamples = 42\nvalue = [15, 27]"] ;
450 -> 451 ;
452 [label="Gender <= 0.5\ngini = 0.198\nsamples = 27\nvalue = [3, 24]"] ;
451 -> 452 ;
453 [label="Age <= 34.5\ngini = 0.5\nsamples = 6\nvalue = [3, 3]"] ;
452 -> 453 ;
454 [label="gini = 0.0\nsamples = 3\nvalue = [0, 3]"] ;
453 -> 454 ;
455 [label="gini = 0.0\nsamples = 3\nvalue = [3, 0]"] ;
453 -> 455 ;
456 [label="gini = 0.0\nsamples = 21\nvalue = [0, 21]"] ;
452 -> 456 ;
457 [label="PercentSalaryHike <= 11.5\ngini = 0.32\nsamples = 15\nvalue = [12, 3]"] ;
451 -> 457 ;
458 [label="gini = 0.0\nsamples = 3\nvalue = [0, 3]"] ;
457 -> 458 ;
459 [label="gini = 0.0\nsamples = 12\nvalue = [12, 0]"] ;
457 -> 459 ;
460 [label="JobLevel <= 3.5\ngini = 0.153\nsamples = 36\nvalue = [33, 3]"] ;
450 -> 460 ;
461 [label="gini = 0.0\nsamples = 33\nvalue = [33, 0]"] ;
460 -> 461 ;
462 [label="gini = 0.0\nsamples = 3\nvalue = [0, 3]"] ;
460 -> 462 ;
463 [label="YearsAtCompany <= 0.5\ngini = 0.089\nsamples = 192\nvalue = [183, 9]"] ;
411 -> 463 ;
464 [label="MonthlyIncome <= 114130.0\ngini = 0.5\nsamples = 6\nvalue = [3, 3]"] ;
463 -> 464 ;
465 [label="gini = 0.0\nsamples = 3\nvalue = [3, 0]"] ;
464 -> 465 ;
466 [label="gini = 0.0\nsamples = 3\nvalue = [0, 3]"] ;
464 -> 466 ;
467 [label="DistanceFromHome <= 14.0\ngini = 0.062\nsamples = 186\nvalue = [180, 6]"] ;
463 -> 467 ;
468 [label="gini = 0.0\nsamples = 147\nvalue = [147, 0]"] ;
467 -> 468 ;
469 [label="PercentSalaryHike <= 11.5\ngini = 0.26\nsamples = 39\nvalue = [33, 6]"] ;
467 -> 469 ;
470 [label="gini = 0.0\nsamples = 3\nvalue = [0, 3]"] ;
469 -> 470 ;
471 [label="DistanceFromHome <= 15.5\ngini = 0.153\nsamples = 36\nvalue = [33, 3]"] ;
469 -> 471 ;
472 [label="gini = 0.0\nsamples = 3\nvalue = [0, 3]"] ;
471 -> 472 ;
473 [label="gini = 0.0\nsamples = 33\nvalue = [33, 0]"] ;
471 -> 473 ;
474 [label="gini = 0.0\nsamples = 3\nvalue = [0, 3]"] ;
410 -> 474 ;
}